-0.0313740640959968,-0.0255393886144041,-0.0227418198641945,-0.0212782324050729,-0.0198398424280985,-0.0207294854215272,-0.0155374339106365,-0.00667486423677547,-0.0090106041162325,-0.0043316269751501,-0.00156247265917299,-0.00221928304152864,0.000309754568014631,0.0035020868375461,0.00449314041888776,0.00356859599774142,-0.00323231535996896,-0.0123753045676796,-0.024582803699796,-0.027534804125946,-0.0562082490331961,-0.0573744549747473,-0.0380784619671684,-0.0461693931298273,-0.0667202961937465,-0.0642126479106721,-0.0682351187467205,-0.0635882305612709,-0.0552893220876075,-0.0231874998364247,0.00687797728586336,0.026025010391728,0.0514386724049294,0.0452446316812344,0.0465688063199178,0.0322314946175151,0.0178152511625491,0.00786494167400442,-0.00807912806109868,-0.00367588139757444,0.000246698840218515,-0.014665825557549,-0.0227831772738354,-0.019250555654607,-0.00685904448276487,-0.0051810803596577,-0.0583070662855242,-0.0873749640640038,-0.103246005706245,-0.0952970325951072,-0.0231229962210523,-0.021619556667663,-0.0164805613172448,-0.0204384252390755,-0.0159573673535446,-0.0108642356330414,-0.00389358214236459,-0.000120102379418268,-0.000353297993319907,0.00423597070394555,0.00532851833213389,0.00738785393911717,0.00724588702707523,0.00749927502793975,0.00264533872018154,-0.00453772145854476,-0.00906563098066783,-0.0182224080151974,-0.0200238724265506,-0.0179111704531961,-0.0249104255499547,-0.00776082823330625,-0.0227252527665647,-0.0416830297988723,-0.0520539631516696,-0.0615276138245182,-0.0490254253212874,-0.0153889810185952,-0.00389096275373884,0.00723765815659663,0.0306692516897555,0.0402287729939041,0.0316290147215389,0.0242237852751648,0.0162378841598449,0.000953333249957539,-0.00152586353371477,-0.000963139826039451,0.012828197332328,0.0300362483054101,0.0224029469099929,0.0132626471523196,0.00967483155681895,0.00318954092722721,0.00205805627340506,0.00546727134727154,0.00543945083100907,-0.0145228287883699,-0.0371989426956777,-0.088126349728244,-0.0177475969126414,-0.00939613686674184,-0.00557131023608545,-0.00535928299373998,-0.00358828388177661,-0.00124162982827714,0.000987166496682192,0.00457613970043084,0.00593873641601235,0.00700052761940752,0.00972185995161824,0.0152230604767427,0.0193729764198794,0.00985409236747771,0.00256844365169338,-0.00684757121813941,-0.0184868677484788,-0.0217978330155056,-0.0230938826871399,-0.0116889949106675,-0.0100589171099088,-0.00731761470320945,-0.029556675525203,-0.0390867194455061,-0.0172605646046455,-0.017488384181368,0.00343986341019499,0.0109520979208849,0.0105048660092527,0.0157277515255371,-0.00785753142822142,-0.0222532633758134,-0.0191589459523202,-0.00277548228646703,0.0266278335033672,0.0328930559145263,0.0307897730493723,0.016367255869892,0.0157553936336498,0.0289076526838087,0.0139274675303858,0.00847638875929183,0.0171457149819851,0.00907763759871335,-0.0177666257782421,-0.0206041898031726,-0.00926778626193014,-0.00162983159328946,0.0162830096775086,-0.000915362470339202,-0.00668240007369395,-0.000759389414121414,0.00200531123624968,0.000824546067293918,0.00439421836662595,0.00516314628912257,0.00858365031040344,0.0160291910978901,0.0210751781027247,0.0308312393386958,0.0359774722094584,0.0454623974626368,0.041566479201263,0.0344084878198931,0.0297990267471371,0.0139584957366323,-0.000703908946958682,-0.00985346891286637,-0.0126076679313255,0.00781475625054983,0.0128486319051414,-0.0074704733547652,-0.0230481976686585,-0.00142754531753738,0.0155715298158667,0.0107826039077299,0.0124184264447196,0.00638784100688607,-0.0168435720612861,-0.0430714740748057,-0.0439945061886492,-0.0186298283052493,0.00328233672498443,-0.0148973171996641,-0.0159690606399905,-9.28344829942634E-05,0.0116773184075752,0.0362984393068767,0.0471972188067328,0.0602577375622693,0.054614409120269,0.0521333753490387,0.0501024783124112,0.0446039534949292,0.0263547154850413,-0.0166897376602881,-0.0168088970136761,-0.0147043056673523,-0.00449346823803402,1.56385164916041E-05,0.00217580416614216,0.00242103919738615,0.00447986635391306,0.00620837788752023,0.00979606595029756,0.0177275869378262,0.029090215987975,0.0421696929442663,0.0459611697677557,0.0486245368951324,0.0508937426264843,0.0467485907003442,0.0407315009809166,0.0280013276619806,0.017690087783654,0.00294561994663737,-0.00847678558191271,-0.0150139534493422,0.00479253658702333,0.0333300887559739,0.01500053195111,-0.0023578568607577,0.025744056245359,0.0346236747374586,0.00215139490519383,-0.0145767352436321,-0.0363669032007842,-0.042160278907521,-0.0362271381542719,-0.00573593317442268,0.00693043166963157,0.0100446673190508,0.0186285023309626,0.0138406690076571,0.0118658053801283,0.00975187195974411,0.0112945805588027,0.021479067773298,0.0251874225167554,0.0253607877990746,0.0327651268140296,0.0389634647237869,0.0366435833738699,0.0299876591248506,0.0498241688649916,0.0419447033106679,0.00345708671275261,-0.00734101104904454,-0.00243348937460775,0.00137348585367121,0.00726031386225768,0.00740596188216557,0.00956709285447812,0.0154156210983132,0.0301227462051853,0.0391879057596109,0.0442016865834623,0.0431228402647099,0.0447501324107717,0.048434937759893,0.0470039219580847,0.0324675974066938,0.0211420295403076,0.0118359675516979,0.00153248527692424,-0.0132011886047943,-0.0197891412864717,-0.013769412607594,0.0188976604587027,0.0234612831011197,0.0135867218356576,0.0551100348907059,0.0673530643718849,0.01557970715273,-0.0243566664758231,-0.0543947070470945,-0.0634329968470744,-0.0472766373232733,0.00129126531203879,0.00569672603702917,0.00892439467217642,0.0175447870117777,0.00654198531946769,0.00628146217753131,0.00906966654279498,0.0106393305934126,0.0196039637166628,0.0209425080995473,0.0203661167524,0.0198119303467074,0.0267089567836446,0.0249637602965597,0.026822269044311,0.0353951295755783,0.0229260979538997,0.0248655959395665,0.0202563624425824,0.00848347948511664,0.00709658672955965,-0.0150240893168722,0.0123180548465809,0.0121816325882867,0.0172202430245213,0.033961140168926,0.0430643400924909,0.0434741911731342,0.0426780456917447,0.0437603959751763,0.0469166954088771,0.0428100162509707,0.0284551303754047,0.0191573713780157,0.0121127626918939,-0.00116704146473312,-0.0169748634666062,-0.0253793888864051,-0.0240100558143839,-0.0106887489706469,0.00271158634414162,0.00621909590538381,0.0380785147975382,0.0594946021680816,0.0137779401081237,-0.0170960143878997,-0.0296945921427547,-0.0441392952696654,-0.0115107007086705,0.00618707267171475,0.00839175449486916,-0.0208172350125696,-0.0271971049079789,-0.0202774198325786,-0.0187881542888384,-0.0105716742524857,-0.00394462491893426,-0.0017046151402513,0.00182382148276424,0.00535387877921866,0.0115135049045739,0.0114561950087202,0.015117316705225,0.0103452798293459,0.0112521884826485,0.0233320447015946,0.0276258745416577,0.0196525021297436,0.0156546882437354,0.00569580586993302,0.0063538193260102,-0.00822968381094163,0.0152417157274465,0.0248743448502859,0.0391511513632867,0.0438163421594569,0.0429113808176634,0.0411599194267098,0.0420088696027987,0.0419921046072807,0.042364000612585,0.0336285781071495,0.0172158423439109,0.00580650786952784,-0.00670163556409846,-0.0193583113751818,-0.0313984263109575,-0.0366613613841531,-0.0384502712945437,-0.0179295710715668,0.00303586176168428,0.00788254047110004,0.00261433186963849,-0.00423700599613102,-0.0264510418457646,-0.026541411473849,-0.00747736958264216,0.031857611967394,0.0431470397566136,0.0226154029505368,-0.0151606393060442,-0.0483973048946267,-0.0506419359120085,-0.0304235233796146,-0.0257223088805397,-0.0354863344476446,-0.0246907425921788,-0.0134457399379126,-0.00764782769210461,0.000274068471627278,0.00264244245450079,0.00916664917171984,0.0133791745045207,0.0101127917147997,0.011583218384058,0.0181004857910429,0.017014000762622,0.0123115117307668,0.014217617519013,0.0101354985832187,0.00436630227510787,0.000457326263132586,0.0269614397634464,0.0375371587543805,0.0425522396426433,0.0433592846905146,0.0440419091365507,0.0435108628882088,0.0425235160974515,0.0423273902200229,0.0312453880218818,0.0184812370744942,0.00840770791957303,-0.0029730516037171,-0.0169542500096861,-0.0278997121540523,-0.0391760776277983,-0.0550123100244032,-0.0609881924091048,-0.0216100928928578,0.01439348853108,-0.012614479938677,-0.0228418293301804,-0.0294821543910379,-0.0191964300776047,-0.0120723512120106,0.0165850558623672,0.037072250342921,0.0300002117697402,0.0315825822338854,-0.0102313553892898,-0.027597419802013,-0.051502232793226,-0.0619181637606171,-0.0570650731459659,-0.0526996806080767,-0.0516452286527203,-0.0399299751083441,-0.0213864689501737,-0.0196965879662989,-0.0143280329981624,0.00310976685013328,0.0110020956029196,0.00812113569178815,0.0109388337529631,0.0161509619026909,0.015441414703191,0.0115215328165572,0.0115967752435357,0.014021704143791,0.00667712743195766,4.16538874697572E-05,0.0364100592212053,0.040978470499954,0.0396416787082124,0.0397529039706031,0.040353255434454,0.0401585332131515,0.0416516888432481,0.0373710946148711,0.0218996292910183,0.0125619682851836,-0.00221602678281707,-0.0169741741983857,-0.0253830765788072,-0.0318244253255224,-0.0469668169776264,-0.0579272288388009,-0.0518527421332469,-0.00889940707158602,-0.0203829603890512,-0.0276470255868375,-0.0232005933155296,-0.0162305060249612,0.00435720503300502,0.00143832833256338,0.00603319806908019,-0.0186460764502266,-0.00622676435219049,0.0115371445366454,0.0110732871124606,-0.0170289426404371,-0.0672011722776269,-0.0934767783434528,-0.0803952614972374,-0.0601603207100446,-0.0514094001157123,-0.0512469411736625,-0.0402880658163187,-0.0256749751707312,-0.00849778397247335,0.00757569126893358,0.00789000166754095,0.00470584644915181,0.0105654050906068,0.0132446269113181,0.0130139847677702,0.010989617665436,0.00925235410584585,0.0118342941072996,0.00601323599307598,0.00238384355875255,0.04152523141661,0.0437641131500518,0.0426755960514323,0.0380985205010108,0.0410072032585844,0.0414865244515567,0.0382833855681614,0.0272257097821833,0.0150094112823929,0.00269736385748704,-0.0155703081128052,-0.0227773540398318,-0.0317375014354803,-0.0417863835411845,-0.0474063645324277,-0.047257374821361,-0.018518111275667,0.00419794217005219,-0.0243909363191248,-0.0148944814915723,0.00975791136632232,0.00640703907911206,0.034303935940507,0.0759401093081601,0.0270199641301784,-0.0155533205310056,-0.00469709065442968,0.00156200391992852,0.0316564322186143,0.0110640220758852,-0.033382366767348,-0.0712033949878234,-0.0843863906145626,-0.0717549149461496,-0.0491773915355716,-0.048249426387647,-0.054288126868894,-0.0348191707976622,-0.0160111047072199,-0.000636236897906689,0.00790374359073389,0.00374790045523047,0.0145675866963142,0.0241090180827853,0.0169051910670256,0.0086252111731617,0.00826107268424973,0.00683652761532789,0.00257668948096974,0.000894758695209876,0.043135482739659,0.0427886195761349,0.0367236984892829,0.0399318386099297,0.0423521023083862,0.0423251620467003,0.0335609143273532,0.0218402943430955,0.00702182600875682,-0.00760983071500701,-0.0211131722960706,-0.0319767559975442,-0.0458920512050987,-0.0459797599222761,-0.0492854790676664,-0.0343858240209783,0.000908843100202888,-0.00205819418943881,-0.0050201473943026,0.022849892411849,0.0371758531221604,0.0453778851982572,0.0723781498074479,0.0861782293104679,0.0631241783435818,0.0262987345572322,0.0187705363378164,0.0260923717690836,0.0346566556953933,0.00790642580174121,-0.0263453324380939,-0.0538092147228293,-0.0695130329637144,-0.080039946010022,-0.0750424954285651,-0.0575875727594192,-0.0537773372084752,-0.0365921236858773,-0.0272697696026402,-0.0175550162196428,0.00580629842643494,0.00238374022412349,0.00460630528583329,0.016526096891569,0.0179028591720951,0.0127954873107084,0.0123502526119137,0.00384835934078776,0.00241971742941381,0.00246470215338866,0.0435509079524237,0.0420314804738533,0.0403159816142399,0.041665922236361,0.041724223422703,0.0393575195466632,0.030758158218053,0.0192965938243015,0.00281131259245062,-0.0121915296257574,-0.0244597085277541,-0.0402212978649768,-0.0491808010468718,-0.0443857541305897,-0.0462119183420352,-0.0171554045724432,-0.000912472106533967,-0.0123487349709319,0.0020567962719272,0.0277369494827862,0.0327924273719375,0.0606607916872394,0.0740497538790892,0.101975550977505,0.0971373835296019,0.0228242321985334,0.0152767927427282,0.0168504200808396,0.0343577837848964,0.00791006511443484,-0.0168460883370429,-0.0418564508366021,-0.047821175599238,-0.0535433169775191,-0.0687595625455247,-0.0634619819239356,-0.0442214541349243,-0.0262050318408467,-0.0247271179836496,-0.0250357353863627,-0.00103944241454943,-0.00174951702566957,0.00198965411846357,0.0121652945076529,0.010675351485226,0.0194441892676206,0.00937492526751153,0.0101676835889203,0.00966724277789276,0.00532847182069537,0.0417395469412943,0.0440226575184475,0.040927332455728,0.0395778955458886,0.0415736135342559,0.0330532701780877,0.0270214281063204,0.0146863561926953,-0.00134526640722221,-0.0135263021117852,-0.0330787561455283,-0.0478222152574195,-0.0527721484846749,-0.0422305109835716,-0.0332265566704651,-0.0123518877894834,-0.0127186048507089,0.00088830883303361,0.00955746426802861,0.0314105983955888,0.0283612872903229,0.082146690708826,0.0730230396732399,0.0993409019239367,0.0690655075196339,0.0252559462372356,0.0328074184930753,0.0173527342047974,0.00750202601352565,0.00502063636725821,0.0081033265203177,-0.00714209876582421,-0.0335408262002627,-0.0370059855966199,-0.0556641974898271,-0.0622661506557999,-0.0467824146544126,-0.0335625910344559,-0.032926977104497,-0.0250459100943646,-0.00023553341047914,0.00299448183248108,0.000663009884508944,0.00856912134271219,0.0147923803855649,0.0191349880775898,0.00990785406838234,0.0048982064195931,0.0133222414279971,0.00375951676545239,0.0413881011975226,0.0419683560879116,0.042447976882421,0.040728640239111,0.0402531072370644,0.0296550657462723,0.0243746892698281,0.010781672234335,-0.00314683467826214,-0.0188386752313949,-0.0335875064558121,-0.0465818360159707,-0.0518579870158631,-0.0452380385126789,-0.0298262795834303,-0.0104718893993469,-0.0107079373327037,0.0024994309024699,0.0165505331925226,0.0169911974205481,0.00450329122814311,0.06787339959251,0.0568450601448623,0.0601416975850124,0.0432972235959053,0.0372580874282455,0.0322262139247777,0.0111609366856137,-0.0160073497618538,-0.000919247423590763,0.0194194503990573,0.00942600461037663,-0.0155326623752637,-0.0310711755268731,-0.0482139092131059,-0.062681431374451,-0.0667885310587336,-0.0468221954668126,-0.0309520402051506,-0.0225516308717736,-0.0119404267469972,0.00996592933937727,-0.00240131610517437,0.0052230514517125,0.012742906056081,0.0205378493234237,0.0113443728890136,0.0078486749960101,0.00916301996372273,0.00414433625426479,0.0463637779960792,0.041272463139089,0.0421670552954378,0.0405091562340483,0.0373034328096147,0.0329146119056813,0.0232160179206273,0.00852184100144159,-0.00625707047733634,-0.0218432568479711,-0.0373029391208845,-0.0480299204433089,-0.0489894290200704,-0.0383675519502885,-0.0251761426703948,-0.0161363420484421,-0.00673935704801415,0.00754445311203815,0.00530904989290757,0.00348455133284678,0.00987017688910498,0.0421738809590833,0.0528242162321932,0.0424486712453523,0.0443651418629209,0.0267681704123463,0.0161187730667701,0.000749165866339938,-0.0320312622418244,-0.0345480028951617,-0.00999842746527814,0.0235599527317788,-0.0118579886421409,-0.0210259372991258,-0.0325235157573213,-0.0607115196673723,-0.0633773121402085,-0.0492062653840607,-0.0289715710840701,-0.0216259736803399,-0.0164322353182364,0.0088407402517008,0.00706222907041127,0.00638289965244312,0.016044016168078,0.0263742470422548,0.0154682880309339,0.00858553550596282,0.0118790167774721,0.0106675553883187,0.045206293314269,0.0437146640080465,0.0411345823945636,0.0437812050477317,0.0387683543590019,0.0304930101605552,0.02015616730651,0.00646540476870566,-0.00649861150384418,-0.0275345493368884,-0.0439527345601121,-0.0463029542262936,-0.042391000047588,-0.0328131447148399,-0.0270553721884206,-0.0171886529982086,-0.00753172057850129,-0.00273470897669599,-0.0117316826039509,-0.018875080003332,0.0119342268758838,0.0310678621495379,0.0500893410588406,0.0585368436182044,0.0505386093379316,0.0218161107932912,-0.00440280421971274,-0.0209635874129191,-0.0409392999029889,-0.0456527227719051,-0.02750957775569,0.0180453280783504,-0.00211605172326238,-0.0208095599967278,-0.0368134539538079,-0.0602270343618776,-0.0581139994115082,-0.0481130377532863,-0.0344283020667283,-0.0249349582693121,-0.0229722462689261,0.00796110599708744,0.0124678247426845,0.0185579513243182,0.0139064126514862,0.0287344657421054,0.0199220046003844,0.0126978313136005,0.00900214612704047,0.0128776382570846,0.0445979955901097,0.0442098014966047,0.041202760217578,0.0419638718781297,0.0359412520063109,0.0289197236864019,0.0177172325201849,0.00290389652674443,-0.00596498037880446,-0.0267526710843759,-0.0415880928164839,-0.039354001246483,-0.0378164585854688,-0.0300728565606812,-0.0284988041054013,-0.0188014898697365,-0.0155636515132503,-0.0321895548646635,-0.0376682581363715,-0.0302290462531346,-0.0255060898010219,0.00869030847652452,0.0456919126816032,0.0551753753462936,0.043711324727606,0.0455333982514155,0.0131075790154854,-0.0141087242409814,-0.0258805118460184,-0.038489224081259,-0.0372002326690269,-0.00225760475736644,0.000315673820012045,-0.0169730878100264,-0.0473439632919699,-0.0650725018191001,-0.0680387678400445,-0.045265594873814,-0.0395394932157139,-0.0201679082514887,-0.0191674702893109,0.00814687167868962,0.0137002612283428,0.0174871021708841,0.024553579041869,0.0269406327577593,0.0253471189615118,0.0123098688433424,0.0122208317105508,0.0123907946146211,0.0455844191495604,0.0447474962700202,0.0434278110133992,0.041363464231345,0.036966942717519,0.0280284196540661,0.0172751985753293,0.00233097349470799,-0.00626191982770454,-0.02408304792231,-0.0359753608884742,-0.0345669103622342,-0.0392079166277595,-0.0365605178298409,-0.0337082551338208,-0.0280307646326575,-0.0374896253809707,-0.0962036277150968,-0.100293861478037,-0.0630263351106365,-0.0110636290777148,-0.0212726077365352,0.0303310174927029,0.0161074455762024,0.04970158237281,0.0592359750095268,0.0244488183931278,0.0306490704898126,0.0145625198964226,-0.0250839999191722,-0.0448033505409015,-0.0577690583636546,-0.0576416420497437,-0.0462836896291153,-0.0440297179761985,-0.0597409797650822,-0.0675589658726182,-0.0451460283098461,-0.0440680781503398,-0.0256245857111855,-0.0208509332857624,0.00566597071040414,0.0263452353872823,0.0167604855270978,0.0251955532602035,0.0275488412253728,0.019746636823646,0.010555933765602,0.0136539512394105,0.0100788298718668,0.0459961584718777,0.0420395697414246,0.03975372584056,0.038723104756895,0.0357606345864148,0.0257150117612306,0.0200388674939157,0.00476160167473282,-0.0062994025358017,-0.0223755060408211,-0.0378128141898324,-0.0366688836496572,-0.0353839526816912,-0.0402720229555476,-0.0446493120397486,-0.0411360776022681,-0.0336106621422476,-0.0299730979584078,-0.0548978213216903,-0.0526367207945029,-0.00073647849940475,0.0123861900851769,0.0115214915918657,-0.0754562402062351,0.040061943462309,0.055783656219874,0.0136361497058974,-0.00600938772677516,-0.00472894969152538,-0.0253541304088587,-0.0453599369401771,-0.0704312614076652,-0.0953397477205328,-0.094160370209357,-0.0629394308615157,-0.0567635693609155,-0.0639844460057762,-0.0426554782192738,-0.0336694486526801,-0.0242222417155272,-0.023787490032109,0.00949558377749442,0.0303702441532486,0.0162409095835358,0.0183307736251698,0.00992173742563022,0.00333973281633259,0.00154090430047741,0.00463582269345753,0.0104645249223014,0.0429399239339869,0.0410822072788471,0.0374674043596833,0.0378108369527107,0.038177852443649,0.0296756310634131,0.0175642222884785,0.00552004145489114,-0.00658963140666141,-0.0202703962628726,-0.0383893188293125,-0.0366820297507525,-0.0371992740397814,-0.0418884547105818,-0.0454464389713939,-0.0431074370785872,-0.0325280145374184,0.00248577027018016,0.000568710097281536,-0.00143825091929331,-0.000441962375789244,0.0114498762109638,0.00359030711970647,-0.0238913605993367,0.00487938719476565,0.0148815407265572,-0.00189993311655899,-0.00841985237764356,-0.0289906663749374,-0.0257887080763126,-0.0265664915137079,-0.0549321537819222,-0.0909974731291257,-0.10284362025591,-0.0812858222748283,-0.0440340549962714,-0.0560905263672948,-0.0411758907856905,-0.0238521716928441,-0.0149639298232705,-0.00976925134542537,0.00649843534201422,0.0188161092721738,-0.00266683641950484,-0.00314013828257266,0.00171322885370017,-0.0164349386268079,-0.01346378314526,-0.00772530435714163,0.00698299451172822,0.0431020061489206,0.0418073929963081,0.0348585946236067,0.0330573408551609,0.0345936506012075,0.0296930381899202,0.0181697300106646,0.00218297970817781,-0.0090364974797765,-0.020026677424512,-0.0327497577020911,-0.03344473566877,-0.0350997553183525,-0.0366585475639835,-0.0394456831160911,-0.0407515638308215,-0.0471648224145248,-0.0448594138869267,-0.0607813349112976,-0.0513290512389856,-0.0173504674225559,-0.0118501685319144,0.0620327405737452,0.0535789821177417,0.033076395569781,0.0364461974828657,0.0288778885458119,0.0132188319407604,-0.0136864422175671,-0.0424887361167926,-0.0415231227377229,-0.0653732873280883,-0.0809322283455817,-0.0897396472919943,-0.0714704306534647,-0.0372323546003465,-0.0344915186852408,-0.0404447779761706,-0.0327168804723978,-0.0190066547926623,-0.00637092905551857,-0.0412729721020246,-0.00501499917850381,0.0112779806897779,-0.0092668118738726,0.0197657115762078,0.0162523332661696,0.0206973742119234,0.000424001707749813,-0.0130385195915655,0.0418034271949357,0.0361331389507325,0.0309347509339136,0.0302784350203921,0.0295013054091477,0.0253597604464301,0.012380176986281,-0.00146774515046505,-0.00873650922554066,-0.0154153760463775,-0.0280575908912169,-0.0319074745843522,-0.0315822739739996,-0.0311147384370709,-0.038331055206355,-0.045277834048212,-0.0494854656912224,-0.0402682003625863,-0.0492970088695248,-0.0701643667047943,0.00613464924827455,0.0170737499685415,0.0534464997161209,0.0578608072952788,0.0444222115957847,0.0419178410374272,0.0267857660069807,0.00893713296138185,-0.0153967003204389,-0.0356513358172001,-0.0422330000839562,-0.052932324337934,-0.0538641187611844,-0.0567777009250079,-0.030421420377677,-0.0254276563738206,-0.0140562433789775,-0.0133571093888169,-0.0411945955537316,-0.022170806612258,-0.0427777783123406,-0.0306082541787107,0.0272391239998688,0.0250147885064799,0.0210261259279352,0.0109408739719203,0.000615039073810431,0.0300095689053835,0.0188361884010446,0.00212655390642572,0.0376988209341427,0.0312990947070145,0.0303428331187341,0.0307997855825028,0.0272195246418431,0.0172179980533079,0.0103226161088636,0.000877067661815649,-0.00793047596830172,-0.0139493518168609,-0.0222776965520807,-0.0268220121361341,-0.0266167524461361,-0.0281047442020197,-0.0317897367903105,-0.0279575684900425,-0.0251491170957288,-0.0176597601516231,-0.0204459328572958,-0.00900923987193528,0.00820957769572899,0.00337028274985759,-0.0122624449490885,-0.00493567610630226,0.0544849039629925,0.0426329065321937,0.0100086644466244,0.00146344878858698,-0.0135876426528668,-0.0161930492636106,-0.0398885723591872,-0.0383529528562467,-0.028700890934549,-0.0294422824960148,-0.0135697104945775,-0.00848660851856678,-0.00579121821667626,-0.0139548532075338,-0.0319711461405819,-0.0224359680726738,-0.061403413491219,-0.024784726101283,0.0153258748405804,0.0348699158779787,0.0333163534060972,-0.00570072731668497,-0.0400936995677356,0.0256550852598077,0.00945559865705273,0.00593536307303125,0.0344827011114402,0.0313916442651007,0.0278612364691587,0.0255721949278214,0.0215062297680243,0.0144005913311909,0.0118346193930918,0.00145664973687148,-0.00444740411449939,-0.0101234218166901,-0.0189672984704827,-0.0216096734510973,-0.0202956792693698,-0.0210897296495554,-0.0123608103121959,0.00216888779281182,0.00528507514534923,-0.0118234237639955,-0.00401987287675024,0.0217842794318948,0.0285171188338037,0.000331445479133041,0.0122406822493174,0.00228719293641414,0.0331110999186958,0.0142498255887681,0.0132405044604559,0.0151939395154423,-0.00769710260992847,-0.028028735296451,-0.0378061624215224,-0.0321127601242751,-0.0204332563096769,-0.0121589694843574,-0.00530820959594067,0.0134735978492399,0.00367353397580123,-0.0309645906806405,-0.031703842402564,-0.0326755085684772,-0.0579180459531813,-0.0645563985380524,-0.00437788355046133,0.0289542558151908,0.0183790870487812,0.00358166923382828,-0.0441259592167319,-0.0217371307345674,-0.0211298350547284,-0.00437099208107021,0.0315514882027108,0.0240160293416658,0.0205804138638949,0.0155711572078002,0.0137163683024714,0.0120175729823997,0.0102577596567484,0.00352124631464943,-0.00565364283408713,-0.0130410180425284,-0.0152964460809166,-0.0190004011020317,-0.0165418894839964,-0.000661470495371685,0.0127299460344675,0.0293348836830826,0.0131867270454281,0.0116020992199461,0.00770089408733415,0.0238738823722628,0.0243849031523053,0.0224734621370413,-0.00902280562385585,-0.0275858270037529,0.00235474657351591,0.00832464934160391,0.00945278296148101,0.0140632031510818,-0.0101470784844907,-0.0234332945651892,-0.0304159775922165,-0.0258252244742688,-0.0175132984568315,0.00507773235468544,0.013234178344228,0.0284791086274737,0.00890951875847609,-0.00887192501441136,-0.00311673996115442,-0.0170431169532943,-0.0363559563256787,-0.0253414967508475,0.0179460531146205,0.0224310066483862,-0.00670741738173686,-0.0182528657969881,-0.0319371357013366,-0.0177938184805128,-0.0117967340204584,0.00302161788425121,0.030328231087221,0.0203430753409139,0.0141738338760033,0.0097439964755665,0.00954465108919707,0.00406221638626843,0.00535622240965304,0.00254778931451841,-0.00467459983245197,-0.0112410594960348,-0.0112182042434785,-0.0186392992611542,-0.0132026127290099,0.00478781239751141,0.0286900824363647,0.0381914882825949,0.039495196572985,0.0322200452650481,0.0323097330731932,0.00737017776007725,0.0189695020302996,0.0345720011100463,-0.0235434680234462,-0.0364913391218632,-0.00277782820052167,0.0275510850862521,0.0159803645410063,-0.0117702800919634,-0.0262741512505277,-0.0230316141648834,-0.012526638130295,-0.0110030103038712,-0.00213322997608102,0.0102776297648052,0.0212223910677762,0.0222238024113118,0.0114276989677696,0.0204894148626599,0.0405391350393355,0.0330501385733092,-0.0545948906563104,0.00864738689894145,0.0264507563492195,0.0328616041578511,0.0470535299484582,-0.0570459835169001,-0.0395286063963341,0.00605147159073413,0.0125460166060764,-0.00477186135083324,0.0283880413256879,0.0223021504681801,0.0169866557974164,0.00858183947501641,0.0100170626575048,0.00609644160062755,0.00549513127200684,-0.00154524624647504,-0.00758415700421293,-0.0150870716752562,-0.012245769570704,-0.0150271242739334,-0.0104633151898934,0.00639805427403906,0.0275206595634715,0.00893015602196305,0.0518727321575849,0.0734144918598684,0.0760760509162179,0.00330304222077913,0.0287791987278571,0.0276793826272255,-0.0402646818046987,-0.0119842453490537,0.0279856872311705,0.0287988580415366,0.00603575240137807,-0.0278667506461373,-0.0251437200622762,-0.0150278352072804,-0.00155871431058086,0.0159197088819455,0.0167696672918596,0.018305653342206,0.019688499089784,-0.0019665067199154,0.00789105149921611,0.0253775180633608,0.0490242752111682,0.0287212426929056,-0.0316595876981954,-0.000204433590227789,0.033182619097894,0.0530906377438592,0.0156744139142704,-0.060913088187839,0.0105713014049784,0.00913057773341935,0.0386826751892977,0.00930364070210825,0.0323337990924181,0.0252726874826787,0.0174739069356678,0.0110618795737444,0.00889632711077024,0.00549456391810051,0.00896553662703897,0.00312210963534244,-0.00423398689867638,-0.0136526296441971,-0.0124625761241206,-0.0165371458060547,-0.0220288928368678,0.0134394031156839,0.0438752943783925,0.0220735148786793,0.0296570685654319,0.0553110809426385,0.0577000004013676,0.0183178609556634,0.0179671652502593,0.0310271893035132,-0.0610301096087013,-0.0161604760704102,0.0370542217116978,0.0315884522191093,-0.0069590035738986,-0.0245668648216849,-0.019979115159671,-0.00684597688669387,0.00387537219927355,0.0157788685417616,0.0137232347574312,0.00876926727969878,-0.00829023600290619,-0.00911863116639777,-0.00413987786763788,0.00256813048833643,0.0166558650543905,0.0110719660734273,0.0166230780341033,-0.0190561255890135,0.0276339004456679,0.0504793723491676,-0.0193988734437813,-0.0352190443113798,-0.0021189784474787,0.0131243896343421,0.0434497393148473,0.000450885830959212,0.0353799107870994,0.0294547652733712,0.0178655789842472,0.0107049741791096,0.00830296671539356,0.00971327094616795,0.010563855713768,0.00811523681396146,0.00064540438509549,-0.0145758903408639,-0.0160764357620193,-0.0218925944395847,-0.0280184549726265,-0.0147940432226257,0.00432151424235813,0.0193809633804107,0.0467878902971902,0.078551330147489,0.087946382199088,0.0600617740043605,-0.000474365329762168,0.00232632017828968,-0.0535378268253514,-0.0441555945453598,0.0209204863375402,0.020515241127407,-0.0286200741007642,-0.0312317979278814,-0.0124037150677342,-0.00644100933800119,0.00668811749245484,0.0283134263613651,0.0162062434232476,-0.0141249306986703,-0.0162664653947802,-0.0130867768490726,-0.0193258888624003,0.00127009820579464,0.0208268735496912,0.0141122749821242,0.00387673326016062,0.0124193766718011,0.0541353366834267,0.0455601767628894,0.0190993263407275,-0.0179190924495053,0.00832422375588862,0.0507474851536708,0.0189539476878591,-0.00103205173790804,0.0377948244512344,0.0335865527370907,0.0255865819435072,0.0130617291730288,0.0058842881056807,0.00790935778385881,0.00556031140153264,0.0101900760501691,0.00553779457164392,-0.0130688983792159,-0.0137337241126874,-0.0203622158333665,-0.0252930712910258,-0.0252659330439929,-0.0288581494052683,-0.0310091985014289,-0.00781122726288105,0.0347601037817213,0.060080788804233,0.0896263569632023,0.00988815618062058,0.0110663099470223,-0.019291886160983,-0.0109149030170999,0.0310365560234633,0.0209842206282827,-0.0220470163204239,-0.0297831010567987,-0.00346843227239454,0.000744308217981431,0.0073627612056432,0.00415316503679413,-0.00285274234775762,-0.021757711795365,-0.0210237175172984,-0.0168812063166577,-0.0111254082854335,0.00680639081603548,0.0390917685710027,0.0359301272527443,-0.015584630801179,0.0196823391906733,0.0501210725825696,0.00967915772966476,-0.00725814523677039,0.00144827592035615,0.0133649685892816,0.0157098323302072,0.000647646817271692,0.0131692244060295,0.041830153736131,0.0354716012489702,0.030474004042389,0.0219233156618491,0.0109809698412249,0.00997394232903605,0.00867151539016758,0.0091393128415943,0.00888317992494954,-0.000142864496746149,-0.00905069212799457,-0.01534887129662,-0.0235887105912341,-0.0160629165673235,-0.0168895231763176,-0.0199866792836669,0.00213802796574809,0.0313029316168266,0.0179538399059296,0.0390922509635647,-0.0540005249330968,-0.016988601336104,-0.0139299090384848,0.0260675147801619,0.0312700204020739,0.012838087480161,-0.0106485273339274,-0.0225970276348429,-0.0138990165185645,-0.00217952907175178,-0.00331410417341973,-0.00790226286568802,-0.0134344902305223,-0.0150716534464673,-0.0122602234673908,-0.00742516593486666,-0.00983835941828474,-0.00731411154515695,0.030218797342354,0.00364254752765347,-0.0408143943372557,0.00357260080961616,-0.0110429653978226,-0.0378680384282527,0.00290306174749412,0.0125964046101049,-0.00610348763494979,0.00234968938676029,0.0220871835244107,0.0314495908400947,0.0428636459456827,0.0394413089190832,0.0296080504030832,0.025656427990636,0.0178351707555837,0.0125635782982502,0.0110006592085051,0.0122055438686559,0.0101547474987153,0.00906096512184846,-0.000638609365340866,-0.00742789582318119,-0.0180747811792021,-0.0127327755845947,-0.0100555862850279,-0.0156449059133706,0.00657715718074317,0.034910025584748,0.0295050914514802,0.0237368881261819,-0.0378027751676149,-0.0312443113347914,-0.0175941976148074,0.0210493975061657,0.0238692478844792,0.0016877239150553,-0.0163467372251499,-0.0207984778548786,-0.0191519204546163,-0.010713197403247,-0.0080258305315108,-0.00447532253388734,-0.0121763812879243,-0.0184945135685186,-0.0154780709473496,-0.00100618450318057,-0.00481020476106779,-0.011514336536968,0.0106266737872166,0.0169675269123395,0.00435531101396461,-0.0230068561840549,-0.0121597851799785,0.0362368390258372,0.0355404203900908,0.0166380940992209,0.0154888824467192,0.0273250221001355,0.0388435311110799,0.0336668206539846,0.0460799622731741,0.0441745539361875,0.0348624221066734,0.0262431147893798,0.0249085398241146,0.0177559864959817,0.0138899639514191,0.00923621441196272,0.011662791134597,0.00459438927733447,0.00284502914610565,-0.000112324924585237,-0.0132090726721606,-0.0133625018044556,-0.00788731018997718,-0.010383725593807,0.0111342845417906,0.0243758845056694,0.0181165456912846,0.0202900119593163,0.00866786866234044,-0.0290328275788534,-0.0277958446370568,-0.0197361371683837,-0.0247377569200796,-0.0162195851031643,-0.0203895479377929,-0.0400765176079717,-0.0276597507106522,-0.0154882819138627,-0.00204368040683913,-0.000627291190580464,-0.0116336434398689,-0.0164399835028599,-0.0147090622718177,-0.0108311493377994,-0.0206641675017057,-0.0225032448502961,0.00509691240983847,0.0318839052486501,0.0274234305080654,0.0398167624724626,0.0567398761412201,0.0502977968069433,0.00641825182366302,0.0130474666972195,0.0358009309726573,0.0394645867583376,0.0332434406770136,0.020740191949293,0.0473955287623278,0.0485569772182133,0.0428012597114025,0.0288991430905606,0.0263116204167302,0.024578300995807,0.0213318500343916,0.0119469582435149,0.0104250536558499,0.00780763081233111,0.00467670426212362,0.00697478006384915,-0.00652542750779438,-0.0131766340374092,-0.00283179118751623,0.00409561415357686,0.0245968157113351,0.0477705304285539,0.0434318732876664,-0.020647097141311,-0.0445219642076297,-0.0106363851868179,-0.0427702544413107,-0.00950910712735311,0.002054114011806,-0.0211731914714314,-0.0249596703603348,-0.0249451274189185,-0.0170206285475711,-0.0129059503932512,-0.00329876262899184,-0.000501487064584888,-0.0121950527796664,-0.012556850744782,-0.00510195035500419,-0.00718535990596258,-0.0226500599795688,-0.00998569641971368,0.04117653392526,0.0563902648861031,0.0609408844833518,0.0616321152839029,0.0439733794345315,0.0157933692817249,-0.00920940792252273,0.0187294362788873,0.0347868305998187,0.0338590750439647,0.0394842104277328,0.0207758213986885,0.0496167186565982,0.0490797996021602,0.0460905732459081,0.0354552631384568,0.033598556286391,0.0258348048758675,0.023147409781062,0.0185677028770441,0.0125578598190897,0.00954944971926353,0.00480024916961685,0.00799557363693729,-2.53437349148347E-05,-0.0149939259954015,-0.00397849517413009,-0.0228795311186888,-0.00890096866479148,0.0408746625331393,0.04491519444346,-0.0134904672336483,-0.0236294994028895,-0.0316362206981125,-0.0570042159892243,0.037453941774361,0.0489806621435209,-0.00672276105331653,-0.0266488464870124,-0.0122080169426614,-0.00822517682951303,0.00196666943873675,-0.00025704677595854,-0.00228101040241652,-0.0116973090801924,-0.0124592678002609,-0.00848211485136764,-0.0053013973545489,-0.0176661611115528,-0.00720764770293243,0.0343436662428628,0.0406118664848544,0.0530503926921031,0.0545054600310711,0.0189868497884396,-0.00222287706653632,0.00200159286860823,0.0186914497687105,0.0253182114368155,0.0252920260859443,0.0440398966190904,0.0370490826259698,0.0521070900214656,0.050771730437421,0.0445609382190333,0.0385658917656248,0.0386148282683419,0.0312609961674759,0.0283584910653954,0.0260757833856478,0.0195413288407674,0.0151344749438026,0.00880385831687636,0.00534212733867754,0.00345774838995952,-0.0139372550424026,-0.0132373362466106,-0.00199893668631741,0.0171782105184812,0.0412462153475966,0.0284611643842038,-0.0104112813543558,-0.0346534958465603,-0.0644224582881331,-0.0365528288938914,0.00838074855323604,0.000901411987120903,-0.0362626500956865,-0.0352379521029424,-0.018949743379805,-0.0234453319325923,-0.00291991820226347,-0.00258930323737541,-0.0130025624449583,-0.0137695631755073,-0.0049548826142081,-0.011739667370988,-0.0108709821329464,-0.0211697714134875,-0.00624165332543395,0.00465611894383197,0.0190058129225097,0.0402049307009157,0.0392413119917576,0.0063677820045181,-0.00353502976525739,0.0148937657831927,0.0310663613612634,0.0355142153282752,0.0353758592266097,0.0348087348566126,0.0550657679260833,0.053345642365398,0.0527814063998892,0.0457950328934545,0.034936569277251,0.0334925564049434,0.0305525951649589,0.0278752137507401,0.026726635516518,0.0255546893555849,0.0156168792315977,0.00934330026318765,0.00905158608291403,0.0026400748030861,-0.0119329453527416,-0.0153925474048526,-0.0112760678426607,-0.00328933860158144,0.0198089417764265,0.0259466303013662,0.0128117619632851,-0.0209068048256268,-0.0763628634615062,-0.0499591302715775,-0.0103103928380834,0.0142413939072122,0.000796443989008067,-0.00169363993906996,-0.00858581562840156,-0.00630607171230094,-0.00589000935429892,-0.0138309948030436,-0.0203237500944273,-0.0203120733166742,-0.00752686601281143,-0.0129798848810642,-0.0315311847384321,-0.0427346569989916,-0.0220313366686796,0.00601358640238154,0.0160689260397952,0.0141430845501334,0.00874350519340813,0.00652289252526089,0.0118311609817125,0.0335123605715785,0.04935470279094,0.0500434764293324,0.0503606398813284,0.0389732760429503,0.0822743534432105,0.0533590140007776,0.0507329595929452,0.0471339466509703,0.0408205978271501,0.0354685868269539,0.0296277950016247,0.0281261629477036,0.0266961574161974,0.0217854700268759,0.0119041335675584,0.00804296079874737,0.00124279056070892,-0.00832088398885022,-0.0106486190355896,-0.0219081779215402,-0.0262944566198155,-0.0122855120135785,-0.0114261554544259,0.0134428101284521,0.0326695421977424,0.00841987441003524,-0.00726072716450426,-0.00324610980002303,0.0302575291922564,0.0376037753823786,0.0342238987088027,0.041715347001335,0.0150762465715153,0.00394354338081449,-0.00559329911178988,-0.0129774786942183,-0.0191031663746611,-0.0155390699401411,-0.0162526795385329,-0.0298833624929698,-0.0430744728632706,-0.0582294846788927,-0.041765670239217,-0.00921026788011217,0.00881765745451193,0.00443406009231579,0.00344937746188311,0.00845403727309303,0.0189688868696063,0.0353579550640371,0.0488532185220901,0.0477786186477966,0.0515866465630861,0.055539226674699,0.0968110419531251,0.0541629103455607,0.0494332510988424,0.0471434632345273,0.042176626303887,0.0363807143139599,0.0311504705828604,0.0241602218834997,0.0193016890332947,0.0166528781356143,0.0108846849861611,0.00301536692840097,-0.0104055142840425,-0.0165161096970603,-0.0199965799585052,-0.028063733526217,-0.0253977661284585,-0.0110114367508694,-0.0189479656690928,0.00360884584932206,0.0330137788454693,0.017662745673585,0.0236208480730592,0.0152054266322383,0.020231104901948,0.0275105728237644,0.0426654072273574,0.0467168183806276,0.0256283173128789,0.0182271342492935,0.000747037645345584,-0.004110608056573,-0.00254127176170382,-0.0181867049705229,-0.0478834297203066,-0.0644801683993901,-0.0731830920714434,-0.0675334641282637,-0.0504611448957189,-0.0224584480979422,-0.00376476109440917,-0.00737280239135679,-0.00704354647864416,-0.00308351464286237,0.00274542388717179,0.029895367277496,0.0396090035762246,0.0536997971474656,0.0614358715797808,0.0616922626048827,0.0625810969017686,0.0569551750338411,0.0504198718164195,0.0466578686116682,0.0425027069267896,0.0397387040119966,0.0381038096737054,0.0193709781667628,0.00568213938767107,0.00533865158068266,-0.0025760606614862,-0.013518903399199,-0.0198478694264418,-0.0254790413196977,-0.0335359689087865,-0.0371205234281767,-0.0245795976365795,-0.0150982369367835,-0.00333590105962204,0.00393699919257111,0.0070843806203487,0.00174701922618067,0.00032369556686689,-0.00287406997906052,0.00340324605096066,-0.0129825749786979,0.00736796712667959,0.0424725826420456,0.019291063693349,0.00298463938916311,-0.00374287963623938,-0.0151875491750482,-0.0163017850396778,-0.0421848617177737,-0.0734429003890101,-0.0743566838442198,-0.0802848547547642,-0.0660438790125848,-0.0592109371947589,-0.050148269997406,-0.0418417446200451,-0.030573911712291,-0.027166233508355,-0.0249787124578321,-0.00172629711538501,0.0385842765032632,0.0516324608557841,0.0525678299049796,0.0505222706244759,0.074807432821749,0.0716647124752346,0.0606410594498832,0.05563350412055,0.0482453128183547,0.0429868546430142,0.0366315550813287,0.0268293838430562,0.014428202553715,-0.000882143375270669,-0.0100785192659374,-0.0271407255850142,-0.0330001399793608,-0.037481372594506,-0.0398664744041534,-0.0459622264276053,-0.0412440758930839,-0.0282186106488939,0.00119200720561863,0.019217116896632,0.0152149367528887,0.00446325232343986,-0.0136250724116847,-0.0194239072965653,-0.0255533981286191,-0.0291395123866945,-0.0427601076379692,-0.0384115451501329,-0.0394545938380197,-0.0393475938528879,-0.0404172162266303,-0.0538374920430447,-0.0618002573568751,-0.0652061305840028,-0.0776200102686892,-0.08294058528437,-0.0801523423108397,-0.0772485031081451,-0.0817827493180075,-0.0864872049242908,-0.0824629892502607,-0.0730028840606679,-0.0598023060466126,-0.0475610209397043,-0.0167632495043626,0.0160173505906466,0.0364278989829614,0.0332264927663047,0.028925409639537,0.0615610255862938,0.0744772659838521,0.0634148068768785,0.0615736541893789,0.0523337676480811,0.0478995525333318,0.0425569081796772,0.0327713576371356,0.0185211826375088,0.00685208520293872,-0.0118539382746937,-0.0366268974776571,-0.0490444527735281,-0.0544270509800191,-0.054934066380788,-0.0517897708774345,-0.0512110757775824,-0.0483910271075314,-0.0406918319853648,0.000810670894666383,0.0176452328996759,0.0265175482567731,0.0204085705814524,-0.00161126794162144,-0.0196224948716513,-0.0274735175242242,-0.0442046065907676,-0.0631643172453993,-0.0607198410324855,-0.0709177344927614,-0.075551020183026,-0.08124064901965,-0.0486153022262087,0.00241411458179211,-0.0263314781792384,-0.0734926594112155,-0.0770294007751262,-0.076252661145507,-0.0584657722453093,-0.0842121717371112,-0.0986433826170614,-0.0856723689858316,-0.077233344372782,-0.0620836741857804,-0.039398250809813,-0.0197114949948281,0.00359511822320484,0.0178617415258468,0.0181032621870653,0.0501376093792191,0.0678374036181799,0.0484607220622114,0.0671415978985881,0.0556991829530195,0.0485340115691114,0.0437414955946545,0.0331941220316595,0.0187460723047247,0.00273260167654664,-0.0159581902114994,-0.0303439252003887,-0.0443588089734449,-0.063099458713416,-0.0722925362189502,-0.0670676390772902,-0.0601051470021856,-0.0551295747433622,-0.0622250973688886,-0.0572355624239014,-0.0248438625298081,0.0137495634428835,0.0210347024455296,0.0271238368312363,0.0209308424154411,0.0123936238773953,0.00535983971300987,-0.00838413121188089,-0.0187832431541866,-0.0376023417621499,-0.0651364046066936,-0.06994401560829,-0.0617286731424731,-0.0176816316002678,0.0134218733733564,0.0069248419897536,-0.0218659588154057,-0.0555466720290433,-0.0738134836748427,-0.082544831651132,-0.057834821276154,-0.0541322821363392,-0.0570287087654075,-0.0510964165741795,-0.0448862556534745,-0.0313572699168726,-0.0272708636609106,-0.01671768294389,0.00744165310624632,0.0422372351062087,0.0642352333575401,0.0491842009299495,0.0432006734625517,0.0490909557433812,0.0531948822045299,0.0474379989358742,0.0306903753306117,0.0114369228821489,-0.00730392171286026,-0.0194974886945513,-0.0316251681597219,-0.0438468982351866,-0.0585413918528702,-0.0638911144531874,-0.0706809234790728,-0.0697792335105943,-0.0711941680024604,-0.071378384537736,-0.0742517100732781,-0.063428930584485,-0.0526718235612923,-0.0345463818495077,-0.0203994669830958,-0.00103910662214444,0.00687795204353149,0.0287058891126355,0.035267113245543,0.031613942593854,0.0102057710146261,0.000405778308599734,-0.020462607164039,-0.0420127249810852,-0.0149018836600025,0.0132172467792955,0.0256212903048039,0.00197773299105534,-0.0305175113055413,-0.0477302491444007,-0.0458423958783373,-0.0590668933321087,-0.0483518642768892,-0.0269664843463141,-0.052076147197552,-0.0633792946502758,-0.0580766512698695,-0.0435084026149674,-0.0279313335709246,0.00836396850851356,0.0183648638101161,0.0162927668440962,0.0194999557793122,0.0161063470375211,0.0294463239694041,0.045035999881692,0.0427586740149696,0.0257697443831088,0.0109339850971025,-0.00526977459347186,-0.0216883950362264,-0.0306784147298233,-0.0426023290092867,-0.054371443861755,-0.0638658950600272,-0.0637973453911277,-0.0728411910958039,-0.0787888143185992,-0.0810183376939734,-0.0708785549796047,-0.0734516972910592,-0.0680539315261219,-0.0671737624705339,-0.0522234039060506,-0.0429900756284921,-0.0396039095321742,-0.0367301065368932,-0.0138414615989678,-0.0048127155516898,0.00173611952269939,-0.000424662195483832,-0.0127600785841373,-0.0287999887241292,-0.00713549908291686,0.00993206553890498,-0.0205903804356096,-0.0244550137390184,-0.0112986533480262,-0.0307825190449378,-0.0277141751282122,-0.022313916512291,-0.0225604158416584,-0.0478585085624795,-0.050760109388753,-0.0658380755143337,-0.0742792267350705,-0.0617234974953388,-0.0350392582103875,-0.000690901992809972,-0.00400638757323194,-0.0228126716364763,-0.0234374161747388,-0.0174444031471084,0.00892537243821388,0.0214449758459483,0.0176300152112418,0.0237602548703236,0.0108160193619598,-0.00291560851302518,-0.010801731490561,-0.0268138943599512,-0.0431339374845536,-0.0592652695031485,-0.06227065163292,-0.0688001332811235,-0.0828622676666876,-0.0861570019381598,-0.0837428321944408,-0.0858553361531874,-0.0777150100553239,-0.0696850919664857,-0.0713433481816137,-0.0708976945288324,-0.0602154300633484,-0.0554209720749673,-0.0444299557712531,-0.0427529940485579,-0.024559667313944,-0.0264728947531372,-0.0476059136982519,-0.0568891140621244,-0.0343494442797142,-0.0175035882150062,-0.0157324948257985,-0.0328698258790062,-0.0518706570361021,-0.027492523846789,-0.0132310533221273,-0.0253063909301334,-0.019618754234064,-0.0216063723313219,-0.04259462550484,-0.0911434988847198,-0.0905174199767405,-0.0754955689230391,-0.0660801144940054,-0.0547957140210382,-0.0331112483659317,-0.019701079027775,-0.0411864332480029,-0.0569237009261112,-0.0585367394283668,-0.0362351414703816,-0.0113771705154644,-0.0168987096411968,-0.0459276454089221,0.00575979588363227,-0.000519467453453178,-0.00652059491669683,-0.0140044600789809,-0.0325738834675773,-0.0432307386767502,-0.0547254041008936,-0.0685984879927822,-0.0807780063227218,-0.0902376716975894,-0.0893645085551476,-0.0900998100824077,-0.0995227418712239,-0.0879829227852389,-0.0741730069973257,-0.0708132507946632,-0.0743846541865452,-0.0664181759723619,-0.0560463894656586,-0.0455558137754618,-0.049474886933731,-0.0301789155592709,-0.0579306052333953,-0.0688151252343319,-0.0211819168526038,-0.0226913253170432,-0.0323855909566357,-0.0292212960196228,-0.0288709619908877,-0.00883820290227944,-0.0203368055169484,-0.00489857605127381,-0.00742917418917733,0.00518239627779669,-0.0205054718303895,-0.109725554038427,-0.101627882599218,-0.0946971160988237,-0.10910437463714,-0.0832994251316432,-0.0348442361015984,-0.0430522009556498,-0.0674267991024095,-0.0915218621503023,-0.0805294370223835,-0.0581612357342762,-0.0346729524904218,-0.0696482642114289,-0.0751669188758981,-0.0663150374867427,-0.00324698730380641,-0.00554418516225662,-0.0111228609729035,-0.0267232003785117,-0.0293632621867387,-0.0427781232583795,-0.0603897551222975,-0.0712522827329187,-0.0780354731568222,-0.0850469033107652,-0.0930067669250828,-0.097217745033545,-0.0939532638278552,-0.090738002385627,-0.0826726337849846,-0.0787301560212239,-0.0779042315109249,-0.0762899320802004,-0.0651822613680821,-0.0503628943018748,-0.0498517264712264,-0.0573614432931406,-0.0839107391650398,-0.0438449307854304,-0.0086634684171365,-0.0319759182393004,-0.0226806599908135,-0.0384892087765579,0.00121330716097102,0.0179760346757692,0.00459829400879111,0.0507700927112327,0.0477593388672085,0.0119097322276371,-0.0455050053063161,-0.131507387888517,-0.119171743895842,-0.11704097327979,-0.114054590786949,-0.100847854742855,-0.0578612158171318,-0.0539863145647583,-0.0993988330391858,-0.115252075397178,-0.0672725698726522,-0.066725384628005,-0.0955339444081796,-0.111756816008636,-0.0707563663759666,-0.0714472133226399,0.00189628921090602,-0.010463358630814,-0.0191293030330481,-0.0241148121872377,-0.0311317374408521,-0.0475334704325884,-0.0560581755095914,-0.0624093834790647,-0.0740031690933407,-0.0859841076416797,-0.0894859641948764,-0.0855051799056059,-0.0888276527683703,-0.0873936575325948,-0.0920160630478978,-0.0795710331220769,-0.0944069395950548,-0.0903326191856383,-0.0749719654867623,-0.0634760003428655,-0.0607189130224362,-0.0923703537659614,-0.084691081163987,-0.0309381940022913,-0.051714770661501,-0.018814152799548,0.00596676904435046,0.0178262925332852,0.01024895624437,0.0273907444397397,0.0683189128650229,0.0816938037452555,0.0850840485974082,0.00682091237237094,-0.0527860055946057,-0.123779504180606,-0.133018086361262,-0.100934506839659,-0.116481033037117,-0.135909190584083,-0.128668876320972,-0.084085625667383,-0.088639023808031,-0.0651105547895848,-0.090748265775504,-0.134204119073971,-0.137772976433549,-0.112137295678583,-0.0744801403361501,-0.0699790189527824